{
  "metadata": {
    "trainer": "scripts/train_ml_tuner.py",
    "records": 14803,
    "ridge": 0.08,
    "feature_names": [
      "front_clearance",
      "front_min_clearance",
      "gap_distance",
      "gap_width",
      "signed_gap_angle",
      "abs_gap_angle",
      "track_curvature",
      "side_min_clearance",
      "side_balance",
      "wall_error",
      "abs_wall_error",
      "prev_speed",
      "abs_prev_steer",
      "center_confidence"
    ],
    "label_policy": "heuristic_safety_speed_targets_v1"
  },
  "speed_scale": {
    "bias": -0.05044637292530919,
    "weights": [
      0.16847718056484215,
      0.10319414750821461,
      0.02860459513957692,
      0.0,
      -0.001751778826963009,
      -0.2902245271802606,
      -0.06941052792146236,
      0.0592738403930725,
      -0.01458164624531201,
      -0.003981638768427401,
      -0.04180319082715022,
      0.04610802537746109,
      -0.008541209147332023,
      -0.033816822445718646
    ]
  },
  "risk": {
    "bias": -1.2194201203479256,
    "weights": [
      0.20396351173043564,
      0.3263245778535734,
      0.08575422799743691,
      0.0,
      0.01257871058290487,
      1.9179022820774247,
      2.807330708570886,
      -0.32464725691887475,
      -0.17712335821268446,
      -0.05254234433981007,
      1.0228228385361007,
      -0.5580981323075948,
      0.8006928117859385,
      -0.053752386108226885
    ]
  },
  "clearance_weight_scale": {
    "bias": 0.3057374656437129,
    "weights": [
      0.009260498710163361,
      -0.20056152680343964,
      -0.030952030380498645,
      0.0,
      0.00014489297282407364,
      0.06341956793488436,
      -0.000774667897630264,
      -0.19640904232650305,
      -0.000791951564446481,
      -0.0049586178711370135,
      0.09139544392377161,
      -0.02743778944675024,
      -0.003871623268610385,
      0.01326291578021009
    ]
  },
  "center_weight_scale": {
    "bias": 0.04062158591814435,
    "weights": [
      -0.0018219539051823421,
      -0.019440557219639713,
      -0.002775509746705616,
      0.0,
      0.00020751207822034673,
      0.052350190099972084,
      0.040752960247866135,
      -0.00704281974703945,
      -0.0014402442174159902,
      0.0002030390766965108,
      0.019541771605657905,
      -0.011037957171484734,
      0.11353332151434065,
      0.12111931706289088
    ]
  },
  "raceline_weight_scale": {
    "bias": 0.2063129544464313,
    "weights": [
      0.0023741715484221796,
      0.019841668883145785,
      0.003253282434634445,
      0.0,
      -0.00036441632014116217,
      -0.0698347044920694,
      -0.05512184415915325,
      0.011053978150384695,
      0.0021849196668244516,
      -0.00027018083480558216,
      -0.16621812473302605,
      0.01581143797841289,
      -0.019120417262790096,
      -0.0018276161750241332
    ]
  },
  "steering_smoothing": {
    "bias": 0.3836119320838852,
    "weights": [
      -0.0017927117287523935,
      -0.01582859403212373,
      -0.0025960160335712656,
      0.0,
      0.0002935206624473299,
      -0.023250713926403363,
      -0.05509251549629416,
      -0.0088510889674696,
      -0.001767748273616371,
      0.00021938123115389493,
      0.021321774471651213,
      0.2266948375582827,
      0.015510390803114024,
      0.0015075882306235394
    ]
  },
  "steer_step_scale": {
    "bias": 0.03225788261869802,
    "weights": [
      -0.018703738388341773,
      -0.07212366963628297,
      -0.041353613832301864,
      0.0,
      0.0038427499575100386,
      0.17631688515879532,
      -0.025728402480310643,
      0.0026729750790631156,
      0.005457577405883349,
      0.00037946151723825965,
      -0.0068849020730907635,
      -0.07021878362042669,
      -0.004788436374733604,
      0.057296185470558064
    ]
  },
  "lateral_bias": {
    "bias": -3.7815620004064472e-06,
    "weights": [
      5.071725825059561e-06,
      -2.4723041631541107e-05,
      -8.33696130990512e-06,
      0.0,
      0.049999097201212074,
      1.5854183496002176e-06,
      -2.122420972757415e-06,
      1.4795806471813956e-05,
      0.07997300623818861,
      -0.04001196132858669,
      3.4052734513316314e-06,
      3.2462736694692883e-06,
      -5.446876977248939e-07,
      8.731392336009501e-07
    ]
  }
}
